{"weights": [0.0, 1.492092, 0.942753, 0.508619, -0.456484, -1.089341, -1.888714, 0.0, 0.0, -1.530871, -1.027053, -0.2401, 0.541831, 1.144301, 1.483149, 0.0, 0.995438, 0.501402, 0.33167, 0.039795, -0.008931, -0.242583, -0.357916, -0.891864, -0.46866, -0.308688, -0.270409, 0.102285, -0.063014, 0.311398, 0.454625, 0.45183, 0.760358, 0.220093, 0.255398, -0.223208, 0.2891, -0.152036, -0.190368, -0.72019, -0.352127, -0.292282, -0.211611, -0.07518, 0.092341, 0.240457, 0.392105, 0.513993, 0.020103, -0.456248, -0.346254, -0.232559, 0.293756, 0.46399, 0.610302, 0.013808, 0.122632, 0.627265, 0.635097, 0.2272, -0.236907, -0.566611, -0.504686, -0.070858, -1.574389, -0.368817, -0.425619, 0.076365, 0.090808, 0.586208, 0.668736, 1.706004, 1.658239, -0.095583, 0.361021, -0.140411, 0.163306, -0.242833, 0.210156, -1.635585, 0.522802, 0.173817, -0.06276, -0.114645, -0.047103, -0.044229, -0.179376, -0.478274, -0.693792, -0.286044, 0.298368, 0.423838, 0.131485, 0.112581, 0.422578, 0.461984, 0.052315, -0.090219, 0.108167, -0.501796, 0.504736, -0.022953, 1.92568, -0.52454, -0.247979, -0.903914, 0.010663, -0.110174, -0.020656, 0.004226, 0.010982, 0.013304, 0.128459, 0.106333, 0.093926, -0.028696, -0.002188, -0.004356, -0.031934, 0.00217, -0.012168, -0.00422, -0.057967, -0.114193, -0.052328, 0.36805, -0.020554, 0.007118, 0.112833, 0.003216, 0.013959, 0.021179, 0.011966, 0.103648, 0.348028, -0.024202, 0.004308, 0.177025, 0.005621, -0.064616, -0.095135, -0.03416, 0.280829, -0.033852, 0.071962, 0.029989, 0.075797, -0.012843, 0.07469, 0.340831, 0.056671, 0.043322, 0.122999, 0.125063, 0.00864, 0.47105, -0.128679, 0.012914, -0.076856, 0.132565, 0.062916, 0.172962, 0.07015, -0.0817, 0.000243, -0.003972, -0.022341, -0.019971, -0.016585, -0.012861, -0.003903, 0.015909, -0.048086, -0.008764, 0.000762], "bias": -0.151115, "n_counts": 96, "n_sig": 13, "inter_pairs": [[0, 0], [0, 1], [0, 2], [0, 3], [0, 4], [0, 5], [0, 6], [0, 7], [0, 8], [0, 9], [0, 10], [1, 1], [1, 2], [1, 3], [1, 4], [1, 5], [1, 6], [1, 7], [1, 8], [1, 9], [1, 10], [2, 2], [2, 3], [2, 4], [2, 5], [2, 6], [2, 7], [2, 8], [2, 9], [2, 10], [3, 3], [3, 4], [3, 5], [3, 6], [3, 7], [3, 8], [3, 9], [3, 10], [4, 4], [4, 5], [4, 6], [4, 7], [4, 8], [4, 9], [4, 10], [5, 5], [5, 6], [5, 7], [5, 8], [5, 9], [5, 10], [6, 6], [6, 7], [6, 8], [6, 9], [6, 10], [7, 7], [7, 8], [7, 9], [7, 10], [8, 8], [8, 9], [8, 10], [9, 9], [9, 10], [10, 10]]}